{
  "ip": 0,
  "fr": 60,
  "v": "5.1.20",
  "assets": [],
  "layers": [
    {
      "ty": 4,
      "nm": "Java_Duke_waving",
      "ip": 0,
      "st": 0,
      "ind": 3,
      "hix": 4,
      "ks": {
        "o": {
          "a": 0,
          "k": 100
        },
        "or": {
          "a": 0,
          "k": [
            0,
            0,
            0
          ]
        },
        "a": {
          "a": 0,
          "k": [
            49.656375885009766,
            111.25471496582031,
            0
          ]
        },
        "p": {
          "s": true,
          "x": {
            "a": 1,
            "k": [
              {
                "t": 0,
                "s": [
                  168.308
                ],
                "e": [
                  187.6121826171875
                ],
                "i": {
                  "x": [
                    0.515
                  ],
                  "y": [
                    0.955
                  ]
                },
                "o": {
                  "x": [
                    0.455
                  ],
                  "y": [
                    0.03
                  ]
                }
              },
              {
                "t": 21,
                "s": [
                  187.6121826171875
                ],
                "e": [
                  168.193
                ],
                "i": {
                  "x": [
                    0.515
                  ],
                  "y": [
                    0.955
                  ]
                },
                "o": {
                  "x": [
                    0.455
                  ],
                  "y": [
                    0.03
                  ]
                }
              },
              {
                "t": 38
              }
            ]
          },
          "y": {
            "a": 1,
            "k": [
              {
                "t": 0,
                "s": [
                  160.317
                ],
                "e": [
                  178.04151916503906
                ],
                "i": {
                  "x": [
                    0.515
                  ],
                  "y": [
                    0.955
                  ]
                },
                "o": {
                  "x": [
                    0.455
                  ],
                  "y": [
                    0.03
                  ]
                }
              },
              {
                "t": 21,
                "s": [
                  178.04151916503906
                ],
                "e": [
                  161.022
                ],
                "i": {
                  "x": [
                    0.515
                  ],
                  "y": [
                    0.955
                  ]
                },
                "o": {
                  "x": [
                    0.455
                  ],
                  "y": [
                    0.03
                  ]
                }
              },
              {
                "t": 38
              }
            ]
          }
        },
        "rx": {
          "a": 0,
          "k": 0
        },
        "ry": {
          "a": 0,
          "k": 0
        },
        "rz": {
          "a": 1,
          "k": [
            {
              "t": 0,
              "s": [
                0
              ],
              "e": [
                25.6112134423478
              ],
              "i": {
                "x": [
                  0.515
                ],
                "y": [
                  0.955
                ]
              },
              "o": {
                "x": [
                  0.455
                ],
                "y": [
                  0.03
                ]
              }
            },
            {
              "t": 21,
              "s": [
                25.6112134423478
              ],
              "e": [
                0.40107045659157625
              ],
              "i": {
                "x": [
                  0.515
                ],
                "y": [
                  0.955
                ]
              },
              "o": {
                "x": [
                  0.455
                ],
                "y": [
                  0.03
                ]
              }
            },
            {
              "t": 38
            }
          ]
        },
        "s": {
          "a": 0,
          "k": [
            65.4,
            65.4
          ]
        }
      },
      "shapes": [
        {
          "ty": "gr",
          "nm": "Java_Duke_waving shape group",
          "it": [
            {
              "ty": "sh",
              "ks": {
                "a": 0,
                "k": {
                  "c": true,
                  "v": [
                    [
                      162.763,
                      168.726
                    ],
                    [
                      191.995,
                      156.63
                    ],
                    [
                      180.763,
                      121.566
                    ],
                    [
                      153.979,
                      110.262
                    ],
                    [
                      128.923,
                      106.302
                    ],
                    [
                      153.979,
                      85.566
                    ],
                    [
                      131.08300000000003,
                      48.702000000000005
                    ],
                    [
                      136.33900000000003,
                      18.606000000000005
                    ],
                    [
                      164.99500000000003,
                      51.798
                    ],
                    [
                      158.94700000000003,
                      16.446000000000005
                    ],
                    [
                      173.20300000000003,
                      0.31800000000000495
                    ],
                    [
                      192.85900000000004,
                      45.102000000000004
                    ],
                    [
                      206.75500000000005,
                      12.342000000000006
                    ],
                    [
                      222.01900000000006,
                      31.206000000000007
                    ],
                    [
                      221.87500000000006,
                      89.742
                    ],
                    [
                      201.93100000000007,
                      118.686
                    ],
                    [
                      195.59500000000006,
                      173.478
                    ],
                    [
                      190.69900000000007,
                      222.51
                    ],
                    [
                      162.763,
                      168.726
                    ],
                    [
                      162.763,
                      168.726
                    ],
                    [
                      162.763,
                      168.726
                    ]
                  ],
                  "i": [
                    [
                      0,
                      0
                    ],
                    [
                      -0.8640000000000043,
                      15.192000000000007
                    ],
                    [
                      9.864000000000004,
                      0.7199999999999989
                    ],
                    [
                      9.864000000000004,
                      0.7199999999999989
                    ],
                    [
                      4.608000000000004,
                      13.104
                    ],
                    [
                      -12.671999999999997,
                      2.088000000000008
                    ],
                    [
                      4.967999999999989,
                      13.031999999999996
                    ],
                    [
                      -13.896,
                      5.111999999999998
                    ],
                    [
                      -15.912000000000006,
                      -12.024000000000001
                    ],
                    [
                      -0.3599999999999852,
                      10.295999999999996
                    ],
                    [
                      -14.616000000000014,
                      -2.0159999999999982
                    ],
                    [
                      -11.376000000000005,
                      -12.384
                    ],
                    [
                      -8.352000000000004,
                      6.119999999999997
                    ],
                    [
                      12.096000000000004,
                      -25.128
                    ],
                    [
                      3.671999999999997,
                      -19.799999999999997
                    ],
                    [
                      4.895999999999987,
                      -12.744
                    ],
                    [
                      9.216000000000008,
                      -13.03200000000001
                    ],
                    [
                      -5.975999999999999,
                      -15.98399999999998
                    ],
                    [
                      0,
                      0
                    ],
                    [
                      0,
                      0
                    ],
                    [
                      0,
                      0
                    ]
                  ],
                  "o": [
                    [
                      7.99199999999999,
                      13.463999999999999
                    ],
                    [
                      0.8640000000000043,
                      -15.192000000000007
                    ],
                    [
                      -9.864000000000004,
                      -0.7199999999999989
                    ],
                    [
                      -9.864000000000004,
                      -0.7199999999999989
                    ],
                    [
                      -4.608000000000004,
                      -13.104
                    ],
                    [
                      -11.304000000000002,
                      -11.304000000000002
                    ],
                    [
                      -4.9680000000000035,
                      -13.032000000000004
                    ],
                    [
                      13.895999999999987,
                      -5.112
                    ],
                    [
                      -4.680000000000007,
                      -17.712000000000003
                    ],
                    [
                      0.3599999999999852,
                      -10.295999999999996
                    ],
                    [
                      14.615999999999985,
                      2.016
                    ],
                    [
                      3.455999999999989,
                      -11.736000000000004
                    ],
                    [
                      8.352000000000004,
                      -6.119999999999997
                    ],
                    [
                      -12.096000000000004,
                      25.127999999999997
                    ],
                    [
                      -3.671999999999997,
                      19.799999999999997
                    ],
                    [
                      -4.895999999999987,
                      12.744
                    ],
                    [
                      -9.216000000000008,
                      13.03200000000001
                    ],
                    [
                      -18.36000000000007,
                      -17.135999999999996
                    ],
                    [
                      0,
                      0
                    ],
                    [
                      0,
                      0
                    ],
                    [
                      0,
                      0
                    ]
                  ]
                }
              }
            },
            {
              "ty": "st",
              "o": {
                "a": 0,
                "k": 0
              },
              "w": {
                "a": 0,
                "k": 0
              },
              "c": {
                "a": 0,
                "k": [
                  0,
                  0,
                  0,
                  0
                ]
              },
              "lc": 3,
              "lj": 1,
              "ml": 1
            },
            {
              "ty": "fl",
              "o": {
                "a": 0,
                "k": 0
              },
              "c": {
                "a": 0,
                "k": [
                  0,
                  0,
                  0,
                  0
                ]
              },
              "r": 1
            },
            {
              "ty": "tr",
              "o": {
                "a": 0,
                "k": 100
              },
              "a": {
                "a": 0,
                "k": [
                  0,
                  0
                ]
              },
              "s": {
                "a": 0,
                "k": [
                  100,
                  100
                ]
              },
              "p": {
                "a": 0,
                "k": [
                  -126.624,
                  -0.001
                ]
              },
              "r": {
                "a": 0,
                "k": 0
              }
            }
          ]
        }
      ],
      "op": 38
    }
  ],
  "op": 38,
  "w": 550,
  "h": 400
}